<?xml version="1.0"?>
<opencv_storage>
<cascade>
  <stageType>BOOST</stageType>
  <featureType>LBP</featureType>
  <height>24</height>
  <width>24</width>
  <stageParams>
    <boostType>GAB</boostType>
    <minHitRate>9.9500000476837158e-01</minHitRate>
    <maxFalseAlarm>5.0000000000000000e-01</maxFalseAlarm>
    <weightTrimRate>9.4999999999999996e-01</weightTrimRate>
    <maxDepth>1</maxDepth>
    <maxWeakCount>100</maxWeakCount></stageParams>
  <featureParams>
    <maxCatCount>256</maxCatCount>
    <featSize>1</featSize></featureParams>
  <stageNum>16</stageNum>
  <stages>
    <!-- stage 0 -->
    <_>
      <maxWeakCount>3</maxWeakCount>
      <stageThreshold>-1.1755090951919556e+00</stageThreshold>
      <weakClassifiers>
        <_>
          <internalNodes>
            0 -1 40 -1286 -1 -1 -1 -1 -1 -1 -1</internalNodes>
          <leafValues>
            -9.5127558708190918e-01 9.3484747409820557e-01</leafValues></_>
        <_>
          <internalNodes>
            0 -1 32 -98501894 -327681 -1149173761 -1 -1048577 -1 -1 -1</internalNodes>
          <leafValues>
            -8.8216054439544678e-01 7.8795248270034790e-01</leafValues></_>
        <_>
          <internalNodes>
            0 -1 182 -16 -1 -515 -1 -1266384768 -86311172 -19924824 -65</internalNodes>
          <leafValues>
            -8.6508899927139282e-01 6.5792703628540039e-01</leafValues></_></weakClassifiers></_>
    <!-- stage 1 -->
    <_>
      <maxWeakCount>3</maxWeakCount>
      <stageThreshold>-1.1067166328430176e+00</stageThreshold>
      <weakClassifiers>
        <_>
          <internalNodes>
            0 -1 43 -2 -1 -1 -1 -1 -1 -1 -1</internalNodes>
          <leafValues>
            -8.9970970153808594e-01 7.2462290525436401e-01</leafValues></_>
        <_>
          <internalNodes>
            0 -1 12 -20561 -20561 -20561 -20561 -20561 -20561 -20561
            -21585</internalNodes>
          <leafValues>
            -8.3626800775527954e-01 6.0829424858093262e-01</leafValues></_>
        <_>
          <internalNodes>
            0 -1 151 -16851746 -463137 -52887554 -335873 -624408360
            -205826 -89596166 -72679682</internalNodes>
          <leafValues>
            -6.4650768041610718e-01 6.2926101684570312e-01</leafValues></_></weakClassifiers></_>
    <!-- stage 2 -->
    <_>
      <maxWeakCount>5</maxWeakCount>
      <stageThreshold>-1.8694272041320801e+00</stageThreshold>
      <weakClassifiers>
        <_>
          <internalNodes>
            0 -1 129 -516 -1 -515 -1 -1 -1 -1 -1</internalNodes>
          <leafValues>
            -7.8487342596054077e-01 6.0200023651123047e-01</leafValues></_>
        <_>
          <internalNodes>
            0 -1 70 -1 -73225686 -1 -5576022 -1 -1 -1 -1</internalNodes>
          <leafValues>
            -6.5267074108123779e-01 6.5091758966445923e-01</leafValues></_>
        <_>
          <internalNodes>
            0 -1 164 -48238576 889961728 -560 -1 -67109480 -10495652
            -1864 -65</internalNodes>
          <leafValues>
            -5.8458149433135986e-01 5.5823302268981934e-01</leafValues></_>
        <_>
          <internalNodes>
            0 -1 62 -20561 -16449 -20545 -4210753 -20481 -16385 -20481
            -20545</internalNodes>
          <leafValues>
            -6.2790918350219727e-01 5.1192128658294678e-01</leafValues></_>
        <_>
          <internalNodes>
            0 -1 87 -1062549286 -631570689 -2110063874 -122487046
            -927298308 -50661377 -352388354 -67109153</internalNodes>
          <leafValues>
            -5.2298069000244141e-01 4.7675722837448120e-01</leafValues></_></weakClassifiers></_>
    <!-- stage 3 -->
    <_>
      <maxWeakCount>6</maxWeakCount>
      <stageThreshold>-1.6393387317657471e+00</stageThreshold>
      <weakClassifiers>
        <_>
          <internalNodes>
            0 -1 172 -1 -1 -513 -1 -587349776 -3 -33695528 -1</internalNodes>
          <leafValues>
            -6.8420243263244629e-01 5.7466810941696167e-01</leafValues></_>
        <_>
          <internalNodes>
            0 -1 85 -16843010 -654639366 -1 -258 -1 -16842753 -1 -257</internalNodes>
          <leafValues>
            -6.5718692541122437e-01 5.2461266517639160e-01</leafValues></_>
        <_>
          <internalNodes>
            0 -1 23 -20561 -20561 -20497 -20561 -20497 -20561 -21521
            -29013</internalNodes>
          <leafValues>
            -7.2923141717910767e-01 4.0521302819252014e-01</leafValues></_>
        <_>
          <internalNodes>
            0 -1 212 -1087307856 -1088362224 -4399632 -7283504
            -1078329859 -1078198352 -1081213443 -9832</internalNodes>
          <leafValues>
            -5.7059091329574585e-01 5.1851034164428711e-01</leafValues></_>
        <_>
          <internalNodes>
            0 -1 174 269748572 487596028 1035739005 -188420 470834652
            -1107538435 -1109647876 -1074066182</internalNodes>
          <leafValues>
            -4.4971013069152832e-01 4.6882733702659607e-01</leafValues></_>
        <_>
          <internalNodes>
            0 -1 51 -67112198 -1 -1 -1 -1 -278529 -1 -1</internalNodes>
          <leafValues>
            -6.6688621044158936e-01 3.1713861227035522e-01</leafValues></_></weakClassifiers></_>
    <!-- stage 4 -->
    <_>
      <maxWeakCount>7</maxWeakCount>
      <stageThreshold>-1.4232521057128906e+00</stageThreshold>
      <weakClassifiers>
        <_>
          <internalNodes>
            0 -1 122 -1048630 -3153938 -2 -1 -537927730 1326440206 -17
            -17</internalNodes>
          <leafValues>
            -6.5054523944854736e-01 5.1824933290481567e-01</leafValues></_>
        <_>
          <internalNodes>
            0 -1 33 -1 -80692430 -1 -6225998 -10241 -1 -16385 -1</internalNodes>
          <leafValues>
            -5.7896089553833008e-01 4.6550586819648743e-01</leafValues></_>
        <_>
          <internalNodes>
            0 -1 219 -145230576 -10485773 -169 -1 2138568691 -32777 -261
            -1</internalNodes>
          <leafValues>
            -5.6296217441558838e-01 4.3893796205520630e-01</leafValues></_>
        <_>
          <internalNodes>
            0 -1 84 -926021410 -257 -1996830465 -12545 1216219390 -28929
            -822113537 -12545</internalNodes>
          <leafValues>
            -4.2856657505035400e-01 5.1063597202301025e-01</leafValues></_>
        <_>
          <internalNodes>
            0 -1 50 -18 -1 -4980737 -2229251 -34209793 -133633 -1 -1</internalNodes>
          <leafValues>
            -7.0781064033508301e-01 3.1500151753425598e-01</leafValues></_>
        <_>
          <internalNodes>
            0 -1 98 1568612123 -16961 499064767 -16453 1258143679
            -16826945 2147424959 1610562491</internalNodes>
          <leafValues>
            -5.9915536642074585e-01 2.5778785347938538e-01</leafValues></_>
        <_>
          <internalNodes>
            0 -1 184 -4 -1114177 -301990403 -4210753 -1395798872
            -4259842 -307234664 -2101333</internalNodes>
          <leafValues>
            -5.5495929718017578e-01 2.4590538442134857e-01</leafValues></_></weakClassifiers></_>
    <!-- stage 5 -->
    <_>
      <maxWeakCount>10</maxWeakCount>
      <stageThreshold>-1.5785298347473145e+00</stageThreshold>
      <weakClassifiers>
        <_>
          <internalNodes>
            0 -1 121 -354235654 -1380358 -17633538 -857350 1308888830
            -808517633 -12289 -4097</internalNodes>
          <leafValues>
            -6.3106381893157959e-01 4.5971357822418213e-01</leafValues></_>
        <_>
          <internalNodes>
            0 -1 38 -268439553 -22529 -20481 -20481 -4097 -20481 -20481
            -20481</internalNodes>
          <leafValues>
            -4.4646552205085754e-01 4.7803068161010742e-01</leafValues></_>
        <_>
          <internalNodes>
            0 -1 125 -6 -1 -2 -1 -1 -1 -1 -1</internalNodes>
          <leafValues>
            -5.1471149921417236e-01 4.1201788187026978e-01</leafValues></_>
        <_>
          <internalNodes>
            0 -1 189 -4195952 1057749248 -4206192 -4195848 -1145062472
            -1080033367 -1343227464 -4194901</internalNodes>
          <leafValues>
            -4.8380640149116516e-01 4.4456169009208679e-01</leafValues></_>
        <_>
          <internalNodes>
            0 -1 109 -662635304 -574947334 -66213 -4456450 -122110018
            -6356996 -65538 -34</internalNodes>
          <leafValues>
            -5.1025277376174927e-01 3.6996018886566162e-01</leafValues></_>
        <_>
          <internalNodes>
            0 -1 252 -15993072 -14681296 -133264 -3789 -1088423951
            -1081082443 -134745696 -1048577</internalNodes>
          <leafValues>
            -4.3917936086654663e-01 3.5665926337242126e-01</leafValues></_>
        <_>
          <internalNodes>
            0 -1 76 -8388837 -537190637 1060314939 -38552773 -2113601
            -1614831717 532357055 532357035</internalNodes>
          <leafValues>
            -4.0831667184829712e-01 3.5993051528930664e-01</leafValues></_>
        <_>
          <internalNodes>
            0 -1 217 2139094803 1061156735 -557249 -1 2071986111
            2147445503 -67372033 2147450879</internalNodes>
          <leafValues>
            -3.7636759877204895e-01 3.5789331793785095e-01</leafValues></_>
        <_>
          <internalNodes>
            0 -1 15 -134224990 -229905914 -220990944 -211617888
            -142084352 139268 -780667904 -238553530</internalNodes>
          <leafValues>
            -3.9266246557235718e-01 3.3039939403533936e-01</leafValues></_>
        <_>
          <internalNodes>
            0 -1 47 -18 -235274241 -131089 -34472997 -201457665
            -235801089 -918017 -264193</internalNodes>
          <leafValues>
            -7.0164227485656738e-01 2.0625792443752289e-01</leafValues></_></weakClassifiers></_>
    <!-- stage 6 -->
    <_>
      <maxWeakCount>11</maxWeakCount>
      <stageThreshold>-1.5491031408309937e+00</stageThreshold>
      <weakClassifiers>
        <_>
          <internalNodes>
            0 -1 151 -587445028 -221186 -17113858 -111137 -589805352
            -74497 -21431046 -5574914</internalNodes>
          <leafValues>
            -5.9426081180572510e-01 4.0497550368309021e-01</leafValues></_>
        <_>
          <internalNodes>
            0 -1 206 -4 -1 -1 -1 -11143984 -12 -1286 -5242902</internalNodes>
          <leafValues>
            -5.6456780433654785e-01 3.3285486698150635e-01</leafValues></_>
        <_>
          <internalNodes>
            0 -1 49 -756028673 -83887361 -2097157377 -21761 1358932735
            -83907585 -67108865 -54529</internalNodes>
          <leafValues>
            -3.5850939154624939e-01 5.1628822088241577e-01</leafValues></_>
        <_>
          <internalNodes>
            0 -1 24 -101208145 -134223953 -240010321 -168320081
            -207114321 -336617041 -408442193 -1347442001</internalNodes>
          <leafValues>
            -7.0889782905578613e-01 2.8695034980773926e-01</leafValues></_>
        <_>
          <internalNodes>
            0 -1 188 218111440 486587888 -10715139 -7061512 492047868
            -5193731 -1073987585 -1077990465</internalNodes>
          <leafValues>
            -4.4600048661231995e-01 3.7577253580093384e-01</leafValues></_>
        <_>
          <internalNodes>
            0 -1 144 -1507330 -65542 -1245186 -65538 -1 -37 -6 -1</internalNodes>
          <leafValues>
            -6.4614510536193848e-01 1.8410851061344147e-01</leafValues></_>
        <_>
          <internalNodes>
            0 -1 229 -12602462 -1827425485 -1246514381 -1077936221
            -12600389 -1145063005 -1086342213 1002421179</internalNodes>
          <leafValues>
            -3.4298822283744812e-01 3.9834707975387573e-01</leafValues></_>
        <_>
          <internalNodes>
            0 -1 244 -14158031 -1892942048 -1745882319 -5243616
            -1356617807 -1969029712 1439126993 -573581839</internalNodes>
          <leafValues>
            -4.6281871199607849e-01 2.8027293086051941e-01</leafValues></_>
        <_>
          <internalNodes>
            0 -1 101 1574897756 1610551295 217538559 503265279
            1610567679 503263215 1524629503 536838143</internalNodes>
          <leafValues>
            -4.0433683991432190e-01 2.9844030737876892e-01</leafValues></_>
        <_>
          <internalNodes>
            0 -1 19 -286273810 -33576049 -1929466113 -3149937
            -1392640769 -263297 218082559 -2359297</internalNodes>
          <leafValues>
            -5.8865171670913696e-01 1.7493690550327301e-01</leafValues></_>
        <_>
          <internalNodes>
            0 -1 20 -152050174 -211622102 -530399230 -247270750
            -1021328896 1073758980 -267136960 -213650878</internalNodes>
          <leafValues>
            -3.7967890501022339e-01 2.9785954952239990e-01</leafValues></_></weakClassifiers></_>
    <!-- stage 7 -->
    <_>
      <maxWeakCount>14</maxWeakCount>
      <stageThreshold>-1.6642749309539795e+00</stageThreshold>
      <weakClassifiers>
        <_>
          <internalNodes>
            0 -1 115 -327681 -327681 -327681 -12910593 -4522242 -4521985
            -327938 -72679430</internalNodes>
          <leafValues>
            -5.3377944231033325e-01 4.1324248909950256e-01</leafValues></_>
        <_>
          <internalNodes>
            0 -1 153 -3145968 521142016 -4194499 -1086324801 -548405284
            1599078216 -2097221 -3145829</internalNodes>
          <leafValues>
            -3.8802394270896912e-01 4.7118374705314636e-01</leafValues></_>
        <_>
          <internalNodes>
            0 -1 27 -81 -33685505 -168430593 -33554433 -134217729 -2049
            -101187841 -67240961</internalNodes>
          <leafValues>
            -4.5642849802970886e-01 3.3928844332695007e-01</leafValues></_>
        <_>
          <internalNodes>
            0 -1 230 246394543 1073725439 1073709055 -1073758209
            1073725375 1073561599 1073692671 1073692671</internalNodes>
          <leafValues>
            -4.5595347881317139e-01 3.6105778813362122e-01</leafValues></_>
        <_>
          <internalNodes>
            0 -1 143 -2097170 -1 -2 -1 -2 -1 -2 -1</internalNodes>
          <leafValues>
            -4.6677902340888977e-01 3.0956995487213135e-01</leafValues></_>
        <_>
          <internalNodes>
            0 -1 68 1324273407 1577054207 -1409290241 -524289 1342160895
            1073610751 -1 1073610751</internalNodes>
          <leafValues>
            -4.3014922738075256e-01 2.8752923011779785e-01</leafValues></_>
        <_>
          <internalNodes>
            0 -1 242 -262667 -4456964 -8707 -4207172 -1049091 -5505091
            -584069672 -5253672</internalNodes>
          <leafValues>
            -3.7997341156005859e-01 3.3192312717437744e-01</leafValues></_>
        <_>
          <internalNodes>
            0 -1 90 -892433714 -768612433 1121644286 1883433710
            -822622004 -129767425 -336859426 -67108881</internalNodes>
          <leafValues>
            -3.9629325270652771e-01 2.7281385660171509e-01</leafValues></_>
        <_>
          <internalNodes>
            0 -1 261 -151002486 -219225586 -520298496 -265886006
            -699416064 1073816576 -253824824 -263984434</internalNodes>
          <leafValues>
            -3.3492389321327209e-01 3.2466915249824524e-01</leafValues></_>
        <_>
          <internalNodes>
            0 -1 136 -838809078 1210108546 -360674806 -80483838
            1212434436 1315720895 -67482034 -613200377</internalNodes>
          <leafValues>
            -3.8977411389350891e-01 2.4993905425071716e-01</leafValues></_>
        <_>
          <internalNodes>
            0 -1 22 -385880321 -4097 -1921524225 -570430209 150966015
            -1392538369 -1929392962 16764127</internalNodes>
          <leafValues>
            -3.9247900247573853e-01 2.5067377090454102e-01</leafValues></_>
        <_>
          <internalNodes>
            0 -1 186 -537919489 -17409 -16913 -4198417 -973091604 -1
            -1919039352 -38797409</internalNodes>
          <leafValues>
            -3.7185490131378174e-01 2.4145585298538208e-01</leafValues></_>
        <_>
          <internalNodes>
            0 -1 94 2113871803 -167796805 1912160191 -33702085
            2029993471 -16838721 1509498879 1610551198</internalNodes>
          <leafValues>
            -4.0724927186965942e-01 2.1960294246673584e-01</leafValues></_>
        <_>
          <internalNodes>
            0 -1 77 -573603654 -771817282 233901311 1610287338 -16807681
            -84472582 -67121409 1543440595</internalNodes>
          <leafValues>
            -2.8057554364204407e-01 3.4139820933341980e-01</leafValues></_></weakClassifiers></_>
    <!-- stage 8 -->
    <_>
      <maxWeakCount>16</maxWeakCount>
      <stageThreshold>-1.8263832330703735e+00</stageThreshold>
      <weakClassifiers>
        <_>
          <internalNodes>
            0 -1 133 -327682 -5701702 -65542 -2 -2 -4521988 -2 -8740</internalNodes>
          <leafValues>
            -4.9498432874679565e-01 3.7668946385383606e-01</leafValues></_>
        <_>
          <internalNodes>
            0 -1 212 -1088356368 -1090453584 -5111888 -5374736
            -1086718019 -1078198275 -1077936643 -8739</internalNodes>
          <leafValues>
            -4.8920914530754089e-01 3.1559067964553833e-01</leafValues></_>
        <_>
          <internalNodes>
            0 -1 54 -8193 -547356673 -794454 -2099213 2131755007
            -101989473 -1281 -1</internalNodes>
          <leafValues>
            -4.5248097181320190e-01 2.9354068636894226e-01</leafValues></_>
        <_>
          <internalNodes>
            0 -1 248 922989328 1059829555 2134325041 -4194501 -12582913
            -4219969 -3909 -1</internalNodes>
          <leafValues>
            -3.7128981947898865e-01 3.7412044405937195e-01</leafValues></_>
        <_>
          <internalNodes>
            0 -1 83 -659896070 -573309953 -2004156449 -12910593
            -88424706 -1 -1 -17665</internalNodes>
          <leafValues>
            -4.1352808475494385e-01 3.0590945482254028e-01</leafValues></_>
        <_>
          <internalNodes>
            0 -1 177 -143395918 -788557 1999844147 -526541 1899214771
            -1078774861 2004054971 2004318067</internalNodes>
          <leafValues>
            -4.2142480611801147e-01 2.3559397459030151e-01</leafValues></_>
        <_>
          <internalNodes>
            0 -1 174 475274588 487601532 2138836477 1073299453
            -573826596 -33798723 -1078162180 -1078260549</internalNodes>
          <leafValues>
            -3.0616444349288940e-01 3.4866800904273987e-01</leafValues></_>
        <_>
          <internalNodes>
            0 -1 7 -8913097 838921986 1596448735 992018431 -177
            -76030153 -57393 -1</internalNodes>
          <leafValues>
            -4.3335524201393127e-01 2.4550455808639526e-01</leafValues></_>
        <_>
          <internalNodes>
            0 -1 17 -2101630 -223616274 -218374112 -203163934 -697311232
            1078351168 -178786240 -212338861</internalNodes>
          <leafValues>
            -3.2326608896255493e-01 3.0458089709281921e-01</leafValues></_>
        <_>
          <internalNodes>
            0 -1 99 1597968319 2101329855 1039634367 -4211777 1608093695
            2142474175 -537423873 -4206657</internalNodes>
          <leafValues>
            -3.7444344162940979e-01 2.5747928023338318e-01</leafValues></_>
        <_>
          <internalNodes>
            0 -1 213 -571099760 -1074282569 -1221214405 -73 -170412099
            -1107970635 -1074415171 922091519</internalNodes>
          <leafValues>
            -2.7827426791191101e-01 3.4004873037338257e-01</leafValues></_>
        <_>
          <internalNodes>
            0 -1 267 -152051062 1122755210 -521215998 1625485314
            -1010842622 67128320 -252514112 -1042810937</internalNodes>
          <leafValues>
            -3.5741508007049561e-01 2.4035283923149109e-01</leafValues></_>
        <_>
          <internalNodes>
            0 -1 44 -387021586 -572510234 -1879175809 -37474553
            -855700225 -55570764 -626689 -34263225</internalNodes>
          <leafValues>
            -2.7863278985023499e-01 3.0922794342041016e-01</leafValues></_>
        <_>
          <internalNodes>
            0 -1 159 -539230721 -4211777 -413165665 -350504001
            1157485780 -22085633 -1107962403 -4194305</internalNodes>
          <leafValues>
            -3.5886296629905701e-01 2.5213050842285156e-01</leafValues></_>
        <_>
          <internalNodes>
            0 -1 120 -17825854 804192110 -201855057 -336594265
            -403185844 1330314573 -49 1330640719</internalNodes>
          <leafValues>
            -3.6068561673164368e-01 2.1332782506942749e-01</leafValues></_>
        <_>
          <internalNodes>
            0 -1 216 36938658 432646579 268187511 -1073744269 1064379828
            1056257525 1073037311 -559753</internalNodes>
          <leafValues>
            -2.9478612542152405e-01 2.6361769437789917e-01</leafValues></_></weakClassifiers></_>
    <!-- stage 9 -->
    <_>
      <maxWeakCount>20</maxWeakCount>
      <stageThreshold>-1.6707285642623901e+00</stageThreshold>
      <weakClassifiers>
        <_>
          <internalNodes>
            0 -1 138 -83965186 -69889 -93127938 -9245953 -808580914
            -110593 -335873 -274689</internalNodes>
          <leafValues>
            -4.2878857254981995e-01 3.2910308241844177e-01</leafValues></_>
        <_>
          <internalNodes>
            0 -1 208 -9 -1 -1 -1 -134745101 -83886089 -201886990 -526345</internalNodes>
          <leafValues>
            -4.1169735789299011e-01 3.0721831321716309e-01</leafValues></_>
        <_>
          <internalNodes>
            0 -1 169 -131076 -1 -4100 -1 -4 -336592913 -8 -5121</internalNodes>
          <leafValues>
            -5.9285759925842285e-01 2.0173184573650360e-01</leafValues></_>
        <_>
          <internalNodes>
            0 -1 84 1222559998 -536883201 -1971400961 -4353 1258260735
            -28673 -285241601 -45057</internalNodes>
          <leafValues>
            -4.0258860588073730e-01 3.2557511329650879e-01</leafValues></_>
        <_>
          <internalNodes>
            0 -1 227 723696554 1060880319 1060585335 1061142463
            1059045311 -1078248137 1060584383 1061109695</internalNodes>
          <leafValues>
            -4.4556805491447449e-01 2.3116160929203033e-01</leafValues></_>
        <_>
          <internalNodes>
            0 -1 91 -8716289 -15532438 -4260102 -16586230 -4097 -339969
            -1 -2109601</internalNodes>
          <leafValues>
            -3.0968430638313293e-01 3.2970777153968811e-01</leafValues></_>
        <_>
          <internalNodes>
            0 -1 36 -268980225 -143134721 -806913 -659457 -266241
            -67784705 -675841 -4740113</internalNodes>
          <leafValues>
            -3.8645771145820618e-01 2.1320557594299316e-01</leafValues></_>
        <_>
          <internalNodes>
            0 -1 28 -68162902 -219486482 -488119680 -205325624
            -417335424 33574400 -677130048 -136842042</internalNodes>
          <leafValues>
            -2.7178588509559631e-01 3.3176639676094055e-01</leafValues></_>
        <_>
          <internalNodes>
            0 -1 200 219217908 -1617908240 -1611005955 -139780
            -1356005447 -1078394947 -1346781251 -1883308032</internalNodes>
          <leafValues>
            -3.8146424293518066e-01 2.3554331064224243e-01</leafValues></_>
        <_>
          <internalNodes>
            0 -1 78 -251682561 1358769407 16719551 1962876383 -117461825
            -1191244545 -385897746 822050559</internalNodes>
          <leafValues>
            -3.5631129145622253e-01 2.2415658831596375e-01</leafValues></_>
        <_>
          <internalNodes>
            0 -1 205 -858923553 -589512859 -51573412 -33579018 -50527020
            -3 -318960640 -50499793</internalNodes>
          <leafValues>
            -2.3361627757549286e-01 3.3952587842941284e-01</leafValues></_>
        <_>
          <internalNodes>
            0 -1 250 -16518768 -542378512 -33569419 -2049 1326405049
            -33284 -709929616 -2113</internalNodes>
          <leafValues>
            -3.3677595853805542e-01 2.3656333982944489e-01</leafValues></_>
        <_>
          <internalNodes>
            0 -1 93 -33554450 -1074792961 -67108881 -1048849 -604045363
            1599074639 -67117105 -33</internalNodes>
          <leafValues>
            -2.8265649080276489e-01 2.6842600107192993e-01</leafValues></_>
        <_>
          <internalNodes>
            0 -1 126 1069191086 1061076895 1073712046 -1077952531
            1073713149 -1145978913 -1208322 -1</internalNodes>
          <leafValues>
            -5.0699567794799805e-01 1.5953995287418365e-01</leafValues></_>
        <_>
          <internalNodes>
            0 -1 266 -6514 -1060181494 -486809056 -1060707646 -689966720
            4342016 -190909240 -253234198</internalNodes>
          <leafValues>
            -2.8285524249076843e-01 2.6522114872932434e-01</leafValues></_>
        <_>
          <internalNodes>
            0 -1 46 -353579282 -641413122 -352530433 -169832576
            -655618049 -1124855823 -1314821 2043676480</internalNodes>
          <leafValues>
            -3.0394679307937622e-01 2.4011538922786713e-01</leafValues></_>
        <_>
          <internalNodes>
            0 -1 238 471929649 923809073 1073569589 -9 1031017877
            -1073792588 2146712565 -229513</internalNodes>
          <leafValues>
            -3.4094521403312683e-01 2.0955033600330353e-01</leafValues></_>
        <_>
          <internalNodes>
            0 -1 4 -67114078 -492570494 -472386976 -205066112 -403720320
            62976 2004348992 -706218704</internalNodes>
          <leafValues>
            -2.9917886853218079e-01 2.3568436503410339e-01</leafValues></_>
        <_>
          <internalNodes>
            0 -1 95 -8390896 2132492049 -4489347 -13402311 -67109187
            -4248805 2098780381 1476938762</internalNodes>
          <leafValues>
            -3.2231563329696655e-01 2.0524868369102478e-01</leafValues></_>
        <_>
          <internalNodes>
            0 -1 264 -360717686 -120610326 553316384 -238028054
            -235427904 1078974018 -1025290040 -236978213</internalNodes>
          <leafValues>
            -2.0995105803012848e-01 3.1197720766067505e-01</leafValues></_></weakClassifiers></_>
    <!-- stage 10 -->
    <_>
      <maxWeakCount>22</maxWeakCount>
      <stageThreshold>-1.7252564430236816e+00</stageThreshold>
      <weakClassifiers>
        <_>
          <internalNodes>
            0 -1 119 -620830977 -629485729 -84215041 805371647 -16855330
            -16883745 -17118498 -98369537</internalNodes>
          <leafValues>
            -5.3859651088714600e-01 2.4595776200294495e-01</leafValues></_>
        <_>
          <internalNodes>
            0 -1 197 -1120 -13632213 -3168 -5242965 -96 -1087373525
            -1622 -273678421</internalNodes>
          <leafValues>
            -3.6810308694839478e-01 3.4735336899757385e-01</leafValues></_>
        <_>
          <internalNodes>
            0 -1 233 -12583149 1060618039 -4210881 -1 -41959493
            -1077952833 -1079132229 1052753855</internalNodes>
          <leafValues>
            -3.5879760980606079e-01 2.9783460497856140e-01</leafValues></_>
        <_>
          <internalNodes>
            0 -1 102 2135363331 2147434495 805257215 2147303423
            2147434495 -1073790977 -67141633 1006059519</internalNodes>
          <leafValues>
            -3.7327015399932861e-01 2.8949517011642456e-01</leafValues></_>
        <_>
          <internalNodes>
            0 -1 53 -129 -73208030 -851969 -6225926 634373983 -1
            -268459697 -1</internalNodes>
          <leafValues>
            -5.2061367034912109e-01 2.1447108685970306e-01</leafValues></_>
        <_>
          <internalNodes>
            0 -1 163 1598824220 521207600 532418361 1061096253
            1548229116 -69402632 1335627775 -4216645</internalNodes>
          <leafValues>
            -2.9305854439735413e-01 3.2650208473205566e-01</leafValues></_>
        <_>
          <internalNodes>
            0 -1 42 -167934033 -168428105 -42488401 -171967041
            -805450241 -100795139 -638398465 -657411</internalNodes>
          <leafValues>
            -5.9841191768646240e-01 1.3454201817512512e-01</leafValues></_>
        <_>
          <internalNodes>
            0 -1 239 -10166796 -1057284 -1073751043 -2 -8707 -4202497
            -17834498 -5308418</internalNodes>
          <leafValues>
            -3.9461052417755127e-01 1.9713343679904938e-01</leafValues></_>
        <_>
          <internalNodes>
            0 -1 207 1370955263 -37748737 -49353 -33554497 2105480565
            -32769 -10010880 -34635980</internalNodes>
          <leafValues>
            -2.8498315811157227e-01 2.6216909289360046e-01</leafValues></_>
        <_>
          <internalNodes>
            0 -1 9 -1608056318 2788258 599199511 264107903 72810757
            349505 549213535 1095235399</internalNodes>
          <leafValues>
            -4.0613538026809692e-01 1.7701628804206848e-01</leafValues></_>
        <_>
          <internalNodes>
            0 -1 69 -83898626 -788533506 -1057566977 -117454130
            1390381823 282136567 -67137793 -67173670</internalNodes>
          <leafValues>
            -2.5929075479507446e-01 2.8003159165382385e-01</leafValues></_>
        <_>
          <internalNodes>
            0 -1 260 -67115506 -221264850 -251994014 -253583670
            -145756160 1073760064 -532225848 -263981366</internalNodes>
          <leafValues>
            -2.5609111785888672e-01 2.7087545394897461e-01</leafValues></_>
        <_>
          <internalNodes>
            0 -1 156 2139061043 -1025 -41976449 -4225 2088730239
            2122284671 2122284927 2139062111</internalNodes>
          <leafValues>
            -4.9814105033874512e-01 1.3125015795230865e-01</leafValues></_>
        <_>
          <internalNodes>
            0 -1 231 -1112494800 1068539827 -1074517743 -1074413707
            -1074483267 -1078681612 -1076580424 1038366579</internalNodes>
          <leafValues>
            -3.5728105902671814e-01 1.7805464565753937e-01</leafValues></_>
        <_>
          <internalNodes>
            0 -1 30 -68161878 -754209278 -487660894 -203234590
            -143662462 147972 -235736896 -213649717</internalNodes>
          <leafValues>
            -2.3977605998516083e-01 2.7275010943412781e-01</leafValues></_>
        <_>
          <internalNodes>
            0 -1 176 403709436 502562140 -807897089 -1073923203
            -21996036 -4292612 -4669444 -1431699456</internalNodes>
          <leafValues>
            -3.9238339662551880e-01 1.6805861890316010e-01</leafValues></_>
        <_>
          <internalNodes>
            0 -1 59 267291902 402100223 267881727 1073713151 761106175
            1073712639 -1346646786 805276910</internalNodes>
          <leafValues>
            -4.9746102094650269e-01 1.1580368131399155e-01</leafValues></_>
        <_>
          <internalNodes>
            0 -1 111 3327 431041471 -1359085569 -1178141306 209996028
            -1090572289 -1380515841 -1075490203</internalNodes>
          <leafValues>
            -2.6487520337104797e-01 2.2757473587989807e-01</leafValues></_>
        <_>
          <internalNodes>
            0 -1 256 -4197470 -675301461 -146811600 -1077944918
            650090146 389099940 -151521358 -134220033</internalNodes>
          <leafValues>
            -2.2257336974143982e-01 2.7515041828155518e-01</leafValues></_>
        <_>
          <internalNodes>
            0 -1 14 -1048670 -492110166 -218107744 -137365280
            -1220544640 313154 -218632064 -170395706</internalNodes>
          <leafValues>
            -2.4114298820495605e-01 2.5479814410209656e-01</leafValues></_>
        <_>
          <internalNodes>
            0 -1 145 -14418025 -1105154142 -1372540995 -1432310112
            -277545257 -983057 -290521091 -1427836937</internalNodes>
          <leafValues>
            -2.1019883453845978e-01 2.7788642048835754e-01</leafValues></_>
        <_>
          <internalNodes>
            0 -1 253 -134225270 -204773650 1892577888 -790437150
            -136331128 71333446 -161840950 -784078902</internalNodes>
          <leafValues>
            -2.0650772750377655e-01 2.6287788152694702e-01</leafValues></_></weakClassifiers></_>
    <!-- stage 11 -->
    <_>
      <maxWeakCount>26</maxWeakCount>
      <stageThreshold>-1.6820498704910278e+00</stageThreshold>
      <weakClassifiers>
        <_>
          <internalNodes>
            0 -1 116 -65542 -327942 -2 -1318 -4354 -78082 -1282
            -536916774</internalNodes>
          <leafValues>
            -3.9178338646888733e-01 3.0808600783348083e-01</leafValues></_>
        <_>
          <internalNodes>
            0 -1 237 -143133709 2004334583 -2185 -1073741825 -2049 -73
            -1093 -1073742917</internalNodes>
          <leafValues>
            -2.4836511909961700e-01 4.0966206789016724e-01</leafValues></_>
        <_>
          <internalNodes>
            0 -1 189 -15731792 1057667864 -4194832 -4194307 -14828611
            -1086324807 -37749319 -5243969</internalNodes>
          <leafValues>
            -3.4761074185371399e-01 2.7202436327934265e-01</leafValues></_>
        <_>
          <internalNodes>
            0 -1 45 -524306 -170526721 -168690193 -33688075 -34340865
            -235342337 -36634627 -34275843</internalNodes>
          <leafValues>
            -5.7925677299499512e-01 1.5760964155197144e-01</leafValues></_>
        <_>
          <internalNodes>
            0 -1 87 -654648098 -537198593 -1573191681 -80544002
            -354775298 -17301505 -16777473 -33</internalNodes>
          <leafValues>
            -3.4692409634590149e-01 2.8941014409065247e-01</leafValues></_>
        <_>
          <internalNodes>
            0 -1 64 -50549505 -33804801 -855887873 -35901441 -50515969
            -50589699 -50462977 1979002879</internalNodes>
          <leafValues>
            -2.9530116915702820e-01 2.8127166628837585e-01</leafValues></_>
        <_>
          <internalNodes>
            0 -1 1 -1342199041 -184833 -268455945 -537589765 -1342240065
            -268890185 -1879375617 268109055</internalNodes>
          <leafValues>
            -4.7638952732086182e-01 1.8001307547092438e-01</leafValues></_>
        <_>
          <internalNodes>
            0 -1 191 -534607 -524361 -524425 -536872973 -155732809
            -1078478927 -1208483841 938997751</internalNodes>
          <leafValues>
            -2.5195851922035217e-01 2.8611555695533752e-01</leafValues></_>
        <_>
          <internalNodes>
            0 -1 190 487620596 -1141326340 -1073938435 -131587
            -1078411780 -65540 -1349730308 -1414922240</internalNodes>
          <leafValues>
            -4.2908132076263428e-01 1.5554623305797577e-01</leafValues></_>
        <_>
          <internalNodes>
            0 -1 110 -55649060 -1524865 -269562100 -3145730 -33554434
            -71326468 -306 -1</internalNodes>
          <leafValues>
            -3.8287743926048279e-01 1.5814039111137390e-01</leafValues></_>
        <_>
          <internalNodes>
            0 -1 240 336664343 1024800052 2139062135 -2261131 1063073727
            -1074102793 -1081345 -83918850</internalNodes>
          <leafValues>
            -2.4723878502845764e-01 2.6916468143463135e-01</leafValues></_>
        <_>
          <internalNodes>
            0 -1 26 -202376278 -202375254 -218107200 -203227934
            -403709054 193028 -673713984 -238553386</internalNodes>
          <leafValues>
            -2.4225969612598419e-01 2.6246389746665955e-01</leafValues></_>
        <_>
          <internalNodes>
            0 -1 103 -541093953 -12607553 1069517759 -4457281 -809775617
            -12607493 -805318657 -4202497</internalNodes>
          <leafValues>
            -2.3390455543994904e-01 2.6653689146041870e-01</leafValues></_>
        <_>
          <internalNodes>
            0 -1 80 -620819204 1509935869 -822145793 -536934151
            -620786467 -50721089 -537415681 2147420381</internalNodes>
          <leafValues>
            -2.8002434968948364e-01 2.2519135475158691e-01</leafValues></_>
        <_>
          <internalNodes>
            0 -1 244 -552599567 -1154482560 -8392207 -5242960
            -1894777951 -1970274904 1162859985 -571484771</internalNodes>
          <leafValues>
            -3.4675461053848267e-01 1.9181349873542786e-01</leafValues></_>
        <_>
          <internalNodes>
            0 -1 265 -151008630 -219230706 -488455648 1080223458
            -212876800 1074054400 -137169272 -247203874</internalNodes>
          <leafValues>
            -2.7491003274917603e-01 2.2325095534324646e-01</leafValues></_>
        <_>
          <internalNodes>
            0 -1 151 1484528792 519831672 -122881 1060635679 -595833704
            -111361 -468258 -1079357505</internalNodes>
          <leafValues>
            -3.5284593701362610e-01 1.8316636979579926e-01</leafValues></_>
        <_>
          <internalNodes>
            0 -1 235 -537934080 -1625706567 -270164223 -1107296265
            -50363256 -1204453996 -285824342 -1461190977</internalNodes>
          <leafValues>
            -2.1149832010269165e-01 2.8088989853858948e-01</leafValues></_>
        <_>
          <internalNodes>
            0 -1 108 2097300 279461780 784116991 -1075304452 214172925
            -1090637851 -1090662417 -1159880963</internalNodes>
          <leafValues>
            -3.0220580101013184e-01 1.8036793172359467e-01</leafValues></_>
        <_>
          <internalNodes>
            0 -1 8 -580681729 -2138245 -266260432 -141035533 -612049409
            -16233045 -18352641 -3285001</internalNodes>
          <leafValues>
            -3.6760398745536804e-01 1.5944866836071014e-01</leafValues></_>
        <_>
          <internalNodes>
            0 -1 21 -67124734 -204495102 1645367298 -211290606
            1915683328 1879180800 1346375744 -217843877</internalNodes>
          <leafValues>
            -2.9198679327964783e-01 1.9427809119224548e-01</leafValues></_>
        <_>
          <internalNodes>
            0 -1 194 -524289 -1083048141 -1879097537 -54759632
            2138402815 -83886089 -758208 -295420096</internalNodes>
          <leafValues>
            -1.9640757143497467e-01 2.8749486804008484e-01</leafValues></_>
        <_>
          <internalNodes>
            0 -1 180 -298876414 34245154 35848704 35684898 103220736
            33770560 539300354 -219187849</internalNodes>
          <leafValues>
            -3.3488819003105164e-01 1.6173058748245239e-01</leafValues></_>
        <_>
          <internalNodes>
            0 -1 114 201527295 414179327 -1362154017 -1412694289
            217861375 -1360019525 -1898459185 -1360532665</internalNodes>
          <leafValues>
            -2.2937737405300140e-01 2.1806707978248596e-01</leafValues></_>
        <_>
          <internalNodes>
            0 -1 61 -470818134 -204822006 1358684322 -205004128
            -762851446 1107570688 -716729144 -213392694</internalNodes>
          <leafValues>
            -1.8912187218666077e-01 2.6527765393257141e-01</leafValues></_>
        <_>
          <internalNodes>
            0 -1 142 1064779583 -201457737 1828470719 -51249985
            1233092095 1975058367 2095931391 2130607871</internalNodes>
          <leafValues>
            -3.4552454948425293e-01 1.4080214500427246e-01</leafValues></_></weakClassifiers></_>
    <!-- stage 12 -->
    <_>
      <maxWeakCount>31</maxWeakCount>
      <stageThreshold>-1.7161642313003540e+00</stageThreshold>
      <weakClassifiers>
        <_>
          <internalNodes>
            0 -1 152 -556998690 1599930364 -368641 -32769 1279805656
            -540123138 -368641 -274689</internalNodes>
          <leafValues>
            -3.2822191715240479e-01 3.7923675775527954e-01</leafValues></_>
        <_>
          <internalNodes>
            0 -1 158 -515 -1048577 -1358188609 -1096045653 -167774731
            -17891329 -1331201 -341071105</internalNodes>
          <leafValues>
            -3.7524470686912537e-01 2.4204498529434204e-01</leafValues></_>
        <_>
          <internalNodes>
            0 -1 89 -18415878 -624230710 -262406 -4406 -1 -285216769
            -2097185 -3158321</internalNodes>
          <leafValues>
            -3.7973445653915405e-01 2.2361800074577332e-01</leafValues></_>
        <_>
          <internalNodes>
            0 -1 228 721469370 993263611 1026814845 2134114239
            1060372415 1060320595 993262587 1060585343</internalNodes>
          <leafValues>
            -3.2402765750885010e-01 2.6245161890983582e-01</leafValues></_>
        <_>
          <internalNodes>
            0 -1 34 2139094847 1350563647 -1 549396674 1600126975 -9 -65
            -251660353</internalNodes>
          <leafValues>
            -4.0003964304924011e-01 1.7985881865024567e-01</leafValues></_>
        <_>
          <internalNodes>
            0 -1 81 1895804159 1560227327 -1124122881 1040187391
            2097130751 956296703 -117440513 553648111</internalNodes>
          <leafValues>
            -3.6716374754905701e-01 1.7406399548053741e-01</leafValues></_>
        <_>
          <internalNodes>
            0 -1 252 2134898480 -12600527 -2127 -5242901 -1086326861
            -5243393 2004841970 -1048593</internalNodes>
          <leafValues>
            -2.7611953020095825e-01 2.7651053667068481e-01</leafValues></_>
        <_>
          <internalNodes>
            0 -1 179 -131076 -67109889 -335544327 -1027 -131076
            -335566197 -1031 -1049</internalNodes>
          <leafValues>
            -4.1334903240203857e-01 1.8155714869499207e-01</leafValues></_>
        <_>
          <internalNodes>
            0 -1 210 -580973225 1060110271 -269484161 -1347420165
            774310149 -1077952513 -1372590353 -1397752337</internalNodes>
          <leafValues>
            -2.1106982231140137e-01 3.2576650381088257e-01</leafValues></_>
        <_>
          <internalNodes>
            0 -1 11 -251662593 -35655745 -1115693641 -707273473
            -2134929665 -1392538433 -855643906 1157614843</internalNodes>
          <leafValues>
            -2.7558770775794983e-01 2.1648336946964264e-01</leafValues></_>
        <_>
          <internalNodes>
            0 -1 74 -12904678 -537182437 2008702395 -5013733 -56819713
            -553969765 1421549023 1536823194</internalNodes>
          <leafValues>
            -2.9686307907104492e-01 2.1500992774963379e-01</leafValues></_>
        <_>
          <internalNodes>
            0 -1 270 -336597334 -1030836598 -491798528 -1064897918
            -622861694 418820 -996683584 -775425045</internalNodes>
          <leafValues>
            -3.0363017320632935e-01 1.7986869812011719e-01</leafValues></_>
        <_>
          <internalNodes>
            0 -1 225 -1356595280 -1415381328 -847260175 -542114576
            -1358775375 -1364475906 219616665 -842017315</internalNodes>
          <leafValues>
            -2.8996089100837708e-01 1.9448137283325195e-01</leafValues></_>
        <_>
          <internalNodes>
            0 -1 48 -890311937 1542238206 -269004865 -3601686 -33607681
            -1179570179 -65537 2144798529</internalNodes>
          <leafValues>
            -2.3499666154384613e-01 2.3594486713409424e-01</leafValues></_>
        <_>
          <internalNodes>
            0 -1 31 -85466494 -257252690 -1595739520 -205331742
            1447273728 1073760064 -189279680 -247209341</internalNodes>
          <leafValues>
            -2.6880547404289246e-01 2.0335274934768677e-01</leafValues></_>
        <_>
          <internalNodes>
            0 -1 218 1061135235 1002421683 805191538 -147465 527763445
            -561675 -1073841154 -557193</internalNodes>
          <leafValues>
            -2.2618339955806732e-01 2.3653085529804230e-01</leafValues></_>
        <_>
          <internalNodes>
            0 -1 135 1218334223 135923215 -92603682 842169983 1276921934
            -560313217 -18159026 -12911025</internalNodes>
          <leafValues>
            -3.1771016120910645e-01 1.7299009859561920e-01</leafValues></_>
        <_>
          <internalNodes>
            0 -1 193 -592388609 1556092229 -582722211 -35619051
            -599499275 -33734795 -1667232512 -39760892</internalNodes>
          <leafValues>
            -2.3562182486057281e-01 2.1947987377643585e-01</leafValues></_>
        <_>
          <internalNodes>
            0 -1 13 -168054865 -168306337 -252060161 -184680473
            -235421697 -172237889 -235406869 -34491717</internalNodes>
          <leafValues>
            -3.0728089809417725e-01 1.6554714739322662e-01</leafValues></_>
        <_>
          <internalNodes>
            0 -1 56 -79497706 1940959015 -42795009 17106691 -113969547
            -136053404 -3736065 1078445575</internalNodes>
          <leafValues>
            -2.6953741908073425e-01 2.1224604547023773e-01</leafValues></_>
        <_>
          <internalNodes>
            0 -1 202 -34078832 -1119879373 -1343094987 -131147 -54549343
            -1128933484 -4866627 884342575</internalNodes>
          <leafValues>
            -2.3811855912208557e-01 2.2284951806068420e-01</leafValues></_>
        <_>
          <internalNodes>
            0 -1 258 -218120182 -212971990 -218439500 1883306410
            -263200768 1077964352 -531971896 -264046454</internalNodes>
          <leafValues>
            -2.5410935282707214e-01 1.9821742177009583e-01</leafValues></_>
        <_>
          <internalNodes>
            0 -1 25 -470815838 -1024790902 -1325927200 -238881696
            -1545098616 845504 1372058304 -708315950</internalNodes>
          <leafValues>
            -2.4190546572208405e-01 2.0048087835311890e-01</leafValues></_>
        <_>
          <internalNodes>
            0 -1 146 -16646217 -1350505501 -1366511971 -1365201246
            -1124794369 -1111638017 -1410859041 -1074548745</internalNodes>
          <leafValues>
            -1.7783528566360474e-01 2.5966456532478333e-01</leafValues></_>
        <_>
          <internalNodes>
            0 -1 107 1751515319 985149365 787549759 1073299453 216796412
            -1091272715 -1367720017 -1158103043</internalNodes>
          <leafValues>
            -2.2854459285736084e-01 2.0675964653491974e-01</leafValues></_>
        <_>
          <internalNodes>
            0 -1 246 -201338366 -181494002 1626255394 1900083882
            -169884536 33838336 -801468278 -783554422</internalNodes>
          <leafValues>
            -1.9472363591194153e-01 2.3875024914741516e-01</leafValues></_>
        <_>
          <internalNodes>
            0 -1 224 -8393231 523221920 2144335216 -806355536
            -1373682399 -1139015749 289756640 -877667136</internalNodes>
          <leafValues>
            -3.2539346814155579e-01 1.4656579494476318e-01</leafValues></_>
        <_>
          <internalNodes>
            0 -1 198 486551549 -1759445000 -1357136003 -4588292
            724835517 -1073776641 733818361 -1346433857</internalNodes>
          <leafValues>
            -1.8814070522785187e-01 2.5911611318588257e-01</leafValues></_>
        <_>
          <internalNodes>
            0 -1 255 -85999616 1400573446 -1335681024 805337096
            -138677888 2150408 -136732022 -251396389</internalNodes>
          <leafValues>
            -2.1525342762470245e-01 2.1065418422222137e-01</leafValues></_>
        <_>
          <internalNodes>
            0 -1 192 -214767742 2132993955 2109181755 -16637 271005607
            804405175 1735489279 -8947881</internalNodes>
          <leafValues>
            -2.0118181407451630e-01 2.1908874809741974e-01</leafValues></_>
        <_>
          <internalNodes>
            0 -1 165 1549536596 -572760519 -545734657 1610286461
            -86483716 -74241 -71763969 -1414919654</internalNodes>
          <leafValues>
            -2.5217011570930481e-01 1.8043747544288635e-01</leafValues></_></weakClassifiers></_>
    <!-- stage 13 -->
    <_>
      <maxWeakCount>34</maxWeakCount>
      <stageThreshold>-1.7066591978073120e+00</stageThreshold>
      <weakClassifiers>
        <_>
          <internalNodes>
            0 -1 122 -540016658 -3145745 -1073758225 -1048785
            -1075839025 -540016689 -1 -81</internalNodes>
          <leafValues>
            -3.2082533836364746e-01 3.3437487483024597e-01</leafValues></_>
        <_>
          <internalNodes>
            0 -1 173 -1 -38854753 -1212153857 -1824716817 -320869124
            -269549569 -117450552 -1048577</internalNodes>
          <leafValues>
            -3.8511183857917786e-01 2.3740853369235992e-01</leafValues></_>
        <_>
          <internalNodes>
            0 -1 214 -524353 1069531071 -1074266241 -1 -540739
            -1074270219 1073070015 922058751</internalNodes>
          <leafValues>
            -2.5711405277252197e-01 3.1926888227462769e-01</leafValues></_>
        <_>
          <internalNodes>
            0 -1 100 -536887489 -184683009 -654328129 -167788867
            161725887 -1803371073 -369314881 -1610826305</internalNodes>
          <leafValues>
            -3.0976828932762146e-01 2.6982530951499939e-01</leafValues></_>
        <_>
          <internalNodes>
            0 -1 132 -16515177 528723847 -1073741825 -1073745921 -524297
            -524289 -524297 -1074266121</internalNodes>
          <leafValues>
            -2.0516432821750641e-01 3.9365205168724060e-01</leafValues></_>
        <_>
          <internalNodes>
            0 -1 72 -83890450 1887391743 -486879522 822083326 -92565826
            1342185238 -67371010 -203423745</internalNodes>
          <leafValues>
            -3.2153230905532837e-01 2.0559303462505341e-01</leafValues></_>
        <_>
          <internalNodes>
            0 -1 41 -34672914 -2060370 -349900801 -34852977 -1405697
            -51376224 -1840129 -46043377</internalNodes>
          <leafValues>
            -1.5937420725822449e-01 3.4524053335189819e-01</leafValues></_>
        <_>
          <internalNodes>
            0 -1 243 1594357617 -13893856 -9439246 -1048670 -551029263
            -1079255119 1430779376 -812646944</internalNodes>
          <leafValues>
            -3.4731832146644592e-01 1.6477055847644806e-01</leafValues></_>
        <_>
          <internalNodes>
            0 -1 118 -353439761 -928846202 -65569 -528702 -805318657
            -822128689 -67174449 -272117937</internalNodes>
          <leafValues>
            -2.1879816055297852e-01 2.6351335644721985e-01</leafValues></_>
        <_>
          <internalNodes>
            0 -1 65 -685273169 -181027017 1059491759 -12599505
            -1006907393 -12870665 -4485121 -12595521</internalNodes>
          <leafValues>
            -3.9090991020202637e-01 1.3564722239971161e-01</leafValues></_>
        <_>
          <internalNodes>
            0 -1 150 1290166271 143662895 -50405729 2141945359
            1591101662 -16883969 -18166706 -4465074</internalNodes>
          <leafValues>
            -2.0295272767543793e-01 2.6587837934494019e-01</leafValues></_>
        <_>
          <internalNodes>
            0 -1 157 -573243396 -537072772 -201992 -67312400 -167980550
            -877704278 -44770388 -68359444</internalNodes>
          <leafValues>
            -4.9577188491821289e-01 1.2470348924398422e-01</leafValues></_>
        <_>
          <internalNodes>
            0 -1 187 -242234111 252702481 -378541824 -273680723
            772263168 792456977 1290200234 252703883</internalNodes>
          <leafValues>
            -2.9344138503074646e-01 1.6177840530872345e-01</leafValues></_>
        <_>
          <internalNodes>
            0 -1 39 -135270742 -741414226 -252448160 -236199200
            -407902326 291844 -235409216 -137890098</internalNodes>
          <leafValues>
            -1.8646030128002167e-01 2.6603701710700989e-01</leafValues></_>
        <_>
          <internalNodes>
            0 -1 201 -1246525552 -1078747209 -1116508299 -1724481
            938980517 -1074399771 267763631 938964975</internalNodes>
          <leafValues>
            -2.5977021455764771e-01 1.9161176681518555e-01</leafValues></_>
        <_>
          <internalNodes>
            0 -1 222 286725495 -572555329 -16521 -1110441985 1566901653
            -32769 -49339 -321945754</internalNodes>
          <leafValues>
            -2.3233728110790253e-01 2.0668615400791168e-01</leafValues></_>
        <_>
          <internalNodes>
            0 -1 257 -3149 -542116674 1606940433 -2562 1124840323
            75813284 2012739570 -671091969</internalNodes>
          <leafValues>
            -2.1029752492904663e-01 2.3062661290168762e-01</leafValues></_>
        <_>
          <internalNodes>
            0 -1 52 -1024528641 -656478466 -1426067457 -268991772
            -788550657 -1090834435 -267265 2147419074</internalNodes>
          <leafValues>
            -2.4741035699844360e-01 1.9010788202285767e-01</leafValues></_>
        <_>
          <internalNodes>
            0 -1 259 -251674618 -758496754 -1300578070 1348663546
            -195330048 1074012160 -199040888 -268239158</internalNodes>
          <leafValues>
            -2.6384162902832031e-01 1.7976501584053040e-01</leafValues></_>
        <_>
          <internalNodes>
            0 -1 10 -1548754014 -490563040 1406628016 -141558432
            -1500534878 447620 1431822400 -716704512</internalNodes>
          <leafValues>
            -2.7060282230377197e-01 1.6295771300792694e-01</leafValues></_>
        <_>
          <internalNodes>
            0 -1 226 -1030839805 42134176 -193473707 -1024462672
            572760739 2232482 44805051 -1007683861</internalNodes>
          <leafValues>
            -1.5800726413726807e-01 2.7988234162330627e-01</leafValues></_>
        <_>
          <internalNodes>
            0 -1 247 1061139714 926924735 901190961 -16993 1581004092
            -5802185 -1095207794 984557247</internalNodes>
          <leafValues>
            -3.2153698801994324e-01 1.3581645488739014e-01</leafValues></_>
        <_>
          <internalNodes>
            0 -1 171 -570425345 473399095 -1923100897 201389856
            -33568769 -213017 -858469172 -1002374076</internalNodes>
          <leafValues>
            -1.5503011643886566e-01 2.8087016940116882e-01</leafValues></_>
        <_>
          <internalNodes>
            0 -1 162 1364991485 393486269 2143038973 1069288765
            -598205192 -106497 -4678408 -1079375174</internalNodes>
          <leafValues>
            -2.6557987928390503e-01 1.6789208352565765e-01</leafValues></_>
        <_>
          <internalNodes>
            0 -1 196 -709290497 -541982729 -34103363 -39190607
            -587905963 -32769 -856339380 -1731357355</internalNodes>
          <leafValues>
            -2.0368763804435730e-01 2.1024391055107117e-01</leafValues></_>
        <_>
          <internalNodes>
            0 -1 104 -72439286 -67420161 -1120108777 1568497017
            -1111507029 -1078346565 -101794753 1073577659</internalNodes>
          <leafValues>
            -4.0121009945869446e-01 1.0997196286916733e-01</leafValues></_>
        <_>
          <internalNodes>
            0 -1 106 2083785760 905457333 741879549 368127935 2121666287
            -1141764135 -353620305 685785055</internalNodes>
          <leafValues>
            -3.3357140421867371e-01 1.3036166131496429e-01</leafValues></_>
        <_>
          <internalNodes>
            0 -1 263 -4470 -756029658 -487660992 -264045366 -185604990
            4599296 -235478808 -798492726</internalNodes>
          <leafValues>
            -2.1741943061351776e-01 1.9944529235363007e-01</leafValues></_>
        <_>
          <internalNodes>
            0 -1 117 1222532831 -663695865 -83951905 1349702302
            -924414258 -285323661 -16781746 -95166902</internalNodes>
          <leafValues>
            -2.6867437362670898e-01 1.5834484994411469e-01</leafValues></_>
        <_>
          <internalNodes>
            0 -1 37 1068437391 -675871829 388961239 1594826631
            -1682996049 -140050001 923602891 521080334</internalNodes>
          <leafValues>
            -3.7213858962059021e-01 1.1103505641222000e-01</leafValues></_>
        <_>
          <internalNodes>
            0 -1 60 -202379602 -15801662 1920722160 -772801336
            -306464820 -1937584564 -709376824 -707791670</internalNodes>
          <leafValues>
            -1.5406824648380280e-01 2.7173611521720886e-01</leafValues></_>
        <_>
          <internalNodes>
            0 -1 269 -67113302 -1009807666 -520625632 -238554936
            -1024482112 410624 -218631478 -1041763633</internalNodes>
          <leafValues>
            -1.7491145431995392e-01 2.2725698351860046e-01</leafValues></_>
        <_>
          <internalNodes>
            0 -1 6 2063859575 285292307 170450879 1023507053 1409318166
            939613686 1679884287 138499863</internalNodes>
          <leafValues>
            -2.7377375960350037e-01 1.4101000130176544e-01</leafValues></_>
        <_>
          <internalNodes>
            0 -1 204 1863035682 531557282 738076208 -602526 441529781
            653492018 2146334333 -34970</internalNodes>
          <leafValues>
            -2.5204104185104370e-01 1.5279091894626617e-01</leafValues></_></weakClassifiers></_>
    <!-- stage 14 -->
    <_>
      <maxWeakCount>40</maxWeakCount>
      <stageThreshold>-1.7408188581466675e+00</stageThreshold>
      <weakClassifiers>
        <_>
          <internalNodes>
            0 -1 175 521010128 520141072 -1080098832 -1088438276
            1599930364 -14811172 -547505217 -1080034885</internalNodes>
          <leafValues>
            -3.5336643457412720e-01 2.6007968187332153e-01</leafValues></_>
        <_>
          <internalNodes>
            0 -1 79 -3158273 -2125825 -805892097 -2289921 -12289
            -3207223 -4097 2145325007</internalNodes>
          <leafValues>
            -2.3996102809906006e-01 3.2650443911552429e-01</leafValues></_>
        <_>
          <internalNodes>
            0 -1 221 -4 -8193 -8193 -9218 -143876 -69954 -2 -5701890</internalNodes>
          <leafValues>
            -3.3764299750328064e-01 2.2134366631507874e-01</leafValues></_>
        <_>
          <internalNodes>
            0 -1 70 -9445505 -73203790 -168855553 -3997982 -791722545
            -33 -741404337 -561</internalNodes>
          <leafValues>
            -4.0682855248451233e-01 1.6297526657581329e-01</leafValues></_>
        <_>
          <internalNodes>
            0 -1 217 2134376211 2139078655 -193 -1 2138537983 2147450879
            -524289 2096463615</internalNodes>
          <leafValues>
            -3.2352051138877869e-01 1.9769401848316193e-01</leafValues></_>
        <_>
          <internalNodes>
            0 -1 105 -587464704 -33814985 -1124595154 -33722433
            2096366736 -50592328 -84394053 -1145491653</internalNodes>
          <leafValues>
            -2.5393578410148621e-01 2.1174328029155731e-01</leafValues></_>
        <_>
          <internalNodes>
            0 -1 136 -297603574 -935137622 -85930482 -10229246
            1313228814 1323190015 -78721522 -817115569</internalNodes>
          <leafValues>
            -3.0069220066070557e-01 2.0640988647937775e-01</leafValues></_>
        <_>
          <internalNodes>
            0 -1 58 1001754543 -105859147 -1648916545 -38421087
            -1279684609 -198013505 -189428737 -12611665</internalNodes>
          <leafValues>
            -3.9023208618164062e-01 1.5082667768001556e-01</leafValues></_>
        <_>
          <internalNodes>
            0 -1 88 -667235106 -583868841 705887967 704708318
            -1105535270 -851971 -30736690 -79504678</internalNodes>
          <leafValues>
            -4.1058519482612610e-01 9.2857182025909424e-02</leafValues></_>
        <_>
          <internalNodes>
            0 -1 168 -148704334 -6095961 926032434 -6046925 926328755
            1068627875 1999765435 2004318067</internalNodes>
          <leafValues>
            -2.6600274443626404e-01 2.0156216621398926e-01</leafValues></_>
        <_>
          <internalNodes>
            0 -1 241 -134219789 -682754049 -2099401 -65 1467480055 -8457
            -246975918 -1033</internalNodes>
          <leafValues>
            -2.9526737332344055e-01 1.6714528203010559e-01</leafValues></_>
        <_>
          <internalNodes>
            0 -1 147 -202190640 -9224224 -48210944 -148692480 -4221298
            -655369 -118703096 -151521549</internalNodes>
          <leafValues>
            -3.4544384479522705e-01 1.6363191604614258e-01</leafValues></_>
        <_>
          <internalNodes>
            0 -1 5 -134219861 -223349074 -260054526 -203230494
            -415240448 444674 -134877120 -243795993</internalNodes>
          <leafValues>
            -2.3423765599727631e-01 2.0128729939460754e-01</leafValues></_>
        <_>
          <internalNodes>
            0 -1 155 -498081278 2288550 -282112225 -1342183521
            1434408773 5485783 -277905621 -402655425</internalNodes>
          <leafValues>
            -2.0044317841529846e-01 2.3030020296573639e-01</leafValues></_>
        <_>
          <internalNodes>
            0 -1 183 -713555969 203587383 220479287 220266240 1551189503
            2088075123 1279544384 -867897536</internalNodes>
          <leafValues>
            -2.0444583892822266e-01 2.2309140861034393e-01</leafValues></_>
        <_>
          <internalNodes>
            0 -1 245 -201334134 -143659218 -253074768 -228401430
            -69213048 -536566528 -796331832 -246677558</internalNodes>
          <leafValues>
            -1.7366036772727966e-01 2.5382778048515320e-01</leafValues></_>
        <_>
          <internalNodes>
            0 -1 75 -251716293 -2752709 -705350221 -113688773 -260579841
            -1647406849 1362378175 496704699</internalNodes>
          <leafValues>
            -3.1336608529090881e-01 1.4639864861965179e-01</leafValues></_>
        <_>
          <internalNodes>
            0 -1 134 201441183 134258591 -300032257 -1345323121
            -17301505 -1090560513 -1084956849 -11305145</internalNodes>
          <leafValues>
            -2.0534099638462067e-01 2.2782073915004730e-01</leafValues></_>
        <_>
          <internalNodes>
            0 -1 113 1432845823 -312486401 -71303233 -84219358
            2013134847 -134217730 -152374110 -2066</internalNodes>
          <leafValues>
            -2.0060628652572632e-01 2.1911959350109100e-01</leafValues></_>
        <_>
          <internalNodes>
            0 -1 128 -83918710 985403055 -1598935490 -1195512901
            2025587856 955805390 -387432770 -1465335809</internalNodes>
          <leafValues>
            -2.0737747848033905e-01 2.0611134171485901e-01</leafValues></_>
        <_>
          <internalNodes>
            0 -1 57 -1566055518 -217924952 -1296575952 -784010112
            -1500536150 67431488 274182352 -716975680</internalNodes>
          <leafValues>
            -2.3278383910655975e-01 1.7657653987407684e-01</leafValues></_>
        <_>
          <internalNodes>
            0 -1 161 235216895 201600815 -1954656801 -1348325561
            1414601207 -40961 -359113377 -1145365933</internalNodes>
          <leafValues>
            -1.7778804898262024e-01 2.3246358335018158e-01</leafValues></_>
        <_>
          <internalNodes>
            0 -1 18 -67116510 -771260406 -221061088 -236784982
            -201329536 1342592260 -209719096 -246941733</internalNodes>
          <leafValues>
            -1.8152265250682831e-01 2.2381445765495300e-01</leafValues></_>
        <_>
          <internalNodes>
            0 -1 211 792004373 520748944 -1380974799 -544353264
            742720581 -1087635459 227876205 -307243832</internalNodes>
          <leafValues>
            -2.1729288995265961e-01 1.8045805394649506e-01</leafValues></_>
        <_>
          <internalNodes>
            0 -1 131 1546096063 404635583 -1096552449 -1090519048
            -1124209153 -1073807361 -1 -1426063361</internalNodes>
          <leafValues>
            -1.7626407742500305e-01 2.2862161695957184e-01</leafValues></_>
        <_>
          <internalNodes>
            0 -1 268 -5470 -1035534354 -84418400 -236193046 -740297276
            4611078 -455088934 -708315397</internalNodes>
          <leafValues>
            -1.7727993428707123e-01 2.2495014965534210e-01</leafValues></_>
        <_>
          <internalNodes>
            0 -1 119 -927036837 -799932137 -218172737 33734223
            1590314056 -29408187 -98902454 -11343333</internalNodes>
          <leafValues>
            -3.1135115027427673e-01 1.2479864060878754e-01</leafValues></_>
        <_>
          <internalNodes>
            0 -1 232 747605915 -1073758209 -1663623817 -1 -33710081
            -1073841219 -285880401 1067728831</internalNodes>
          <leafValues>
            -2.1531285345554352e-01 1.8167328834533691e-01</leafValues></_>
        <_>
          <internalNodes>
            0 -1 262 -67638654 -261699958 586859042 -255657238 -2377984
            28672 -482156344 -247201830</internalNodes>
          <leafValues>
            -2.1393559873104095e-01 1.7462854087352753e-01</leafValues></_>
        <_>
          <internalNodes>
            0 -1 195 489364991 1069268799 -1349570753 -1926678000
            1836385653 -521 1282673680 1279546880</internalNodes>
          <leafValues>
            -3.2152590155601501e-01 1.1573822796344757e-01</leafValues></_>
        <_>
          <internalNodes>
            0 -1 166 1477243860 487620024 263880477 2139057533
            1409831416 -332296 -1884782657 -339804118</internalNodes>
          <leafValues>
            -1.7037343978881836e-01 2.1882867813110352e-01</leafValues></_>
        <_>
          <internalNodes>
            0 -1 0 -1556352093 -477445472 -201853710 -680003232
            -2026128973 54688 1430745588 -716704448</internalNodes>
          <leafValues>
            -2.0533293485641479e-01 1.8105424940586090e-01</leafValues></_>
        <_>
          <internalNodes>
            0 -1 141 -939016182 -639646625 -605316577 -783301985
            -1073230161 -1739979264 -536378870 4653571</internalNodes>
          <leafValues>
            -2.1528449654579163e-01 1.7234225571155548e-01</leafValues></_>
        <_>
          <internalNodes>
            0 -1 203 1864606498 329426594 1069298737 -1207456 1014316983
            1022707443 1568112059 -34953</internalNodes>
          <leafValues>
            -2.1274442970752716e-01 1.7680999636650085e-01</leafValues></_>
        <_>
          <internalNodes>
            0 -1 251 -13380111 -2624016 -538977803 -1048842 -818967047
            -1896153107 1564955992 -839913829</internalNodes>
          <leafValues>
            -1.8869505822658539e-01 1.8999011814594269e-01</leafValues></_>
        <_>
          <internalNodes>
            0 -1 63 -361831798 -255425882 -789658960 -238817598
            -134237492 1141129280 1370726632 -716966198</internalNodes>
          <leafValues>
            -1.7837953567504883e-01 1.9781154394149780e-01</leafValues></_>
        <_>
          <internalNodes>
            0 -1 209 -640197121 -65537025 -1112588353 -39075935
            -598277091 -1077968897 -1225460 -1999637431</internalNodes>
          <leafValues>
            -1.6146387159824371e-01 2.1847593784332275e-01</leafValues></_>
        <_>
          <internalNodes>
            0 -1 3 -1429230865 -134234401 -1879057411 -537401357
            -1343247361 -63761 256617471 2147418869</internalNodes>
          <leafValues>
            -2.7336174249649048e-01 1.3161425292491913e-01</leafValues></_>
        <_>
          <internalNodes>
            0 -1 123 36667907 -740359631 570562642 1599046431 108008448
            97719040 1148998400 -76028229</internalNodes>
          <leafValues>
            -1.7879810929298401e-01 2.0775507390499115e-01</leafValues></_>
        <_>
          <internalNodes>
            0 -1 271 -83932593 -67154339 -1571631370 1347616474
            -757611508 -464225472 -219745046 -1067778102</internalNodes>
          <leafValues>
            -1.7667801678180695e-01 1.9507041573524475e-01</leafValues></_></weakClassifiers></_>
    <!-- stage 15 -->
    <_>
      <maxWeakCount>44</maxWeakCount>
      <stageThreshold>-1.7282240390777588e+00</stageThreshold>
      <weakClassifiers>
        <_>
          <internalNodes>
            0 -1 139 -70321190 -548736038 -336679041 -2118789 1313770206
            1330577358 -538980353 -3145761</internalNodes>
          <leafValues>
            -3.0474656820297241e-01 2.6901823282241821e-01</leafValues></_>
        <_>
          <internalNodes>
            0 -1 112 1279319263 -570687521 -262145 -33 -926941185 -16385
            -8193 -8242</internalNodes>
          <leafValues>
            -2.4486362934112549e-01 2.8191962838172913e-01</leafValues></_>
        <_>
          <internalNodes>
            0 -1 206 -4 -67111937 -23070977 -1426084897 -2759468 -1
            -269485334 -7344146</internalNodes>
          <leafValues>
            -4.0717697143554688e-01 1.7254360020160675e-01</leafValues></_>
        <_>
          <internalNodes>
            0 -1 97 1565873492 1574523989 1545166175 1565871615
            -570425345 209735893 -842928289 134307247</internalNodes>
          <leafValues>
            -2.5717335939407349e-01 2.4621184170246124e-01</leafValues></_>
        <_>
          <internalNodes>
            0 -1 127 -196614 -199682 -68677 -1102 -3073 -19837 -1 -3149</internalNodes>
          <leafValues>
            -4.5868140459060669e-01 1.3686530292034149e-01</leafValues></_>
        <_>
          <internalNodes>
            0 -1 236 -8931552 1060618039 -4735169 -1073741825 -41959748
            -17023812 -1074872696 686096063</internalNodes>
          <leafValues>
            -3.0650237202644348e-01 1.8596445024013519e-01</leafValues></_>
        <_>
          <internalNodes>
            0 -1 55 -201851922 -135007749 -306217105 -262145 -172231813
            -641994757 2147483647 -1</internalNodes>
          <leafValues>
            -2.9085233807563782e-01 1.9631487131118774e-01</leafValues></_>
        <_>
          <internalNodes>
            0 -1 223 1430738263 -536870913 -2097153 -36700161 1275413847
            -1077968897 -45129911 -858783773</internalNodes>
          <leafValues>
            -1.9545844197273254e-01 2.6406052708625793e-01</leafValues></_>
        <_>
          <internalNodes>
            0 -1 16 -282071810 -149967553 -1892774658 1997516735
            -268440321 -80762245 -1455716101 2131692607</internalNodes>
          <leafValues>
            -2.7976348996162415e-01 1.7314292490482330e-01</leafValues></_>
        <_>
          <internalNodes>
            0 -1 167 -8915021 -583010509 -139214917 -541853901 -12077133
            -2889933 -13375493 2004088627</internalNodes>
          <leafValues>
            -2.6897463202476501e-01 1.7268919944763184e-01</leafValues></_>
        <_>
          <internalNodes>
            0 -1 71 -622924050 1358948062 -388731138 1895754432
            1650438142 1356478456 2143251439 -134223905</internalNodes>
          <leafValues>
            -2.1147364377975464e-01 2.1360881626605988e-01</leafValues></_>
        <_>
          <internalNodes>
            0 -1 148 -70 -463136 -462916 -131920 -71369733 -101163088
            -458754 429480273</internalNodes>
          <leafValues>
            -2.8412535786628723e-01 1.4366294443607330e-01</leafValues></_>
        <_>
          <internalNodes>
            0 -1 199 -877665616 -1425019358 -986721808 -5251089
            -1372609632 -1894847830 -980462336 -1919943285</internalNodes>
          <leafValues>
            -3.7138825654983521e-01 1.1572311818599701e-01</leafValues></_>
        <_>
          <internalNodes>
            0 -1 170 -290487806 36644386 711860770 36413954 1314848774
            918018 1627062282 -218106893</internalNodes>
          <leafValues>
            -2.8871011734008789e-01 1.3881352543830872e-01</leafValues></_>
        <_>
          <internalNodes>
            0 -1 220 271849431 -44695561 -233 -35717138 359925188 -33033
            -692476 -36733085</internalNodes>
          <leafValues>
            -2.2279058396816254e-01 1.9077764451503754e-01</leafValues></_>
        <_>
          <internalNodes>
            0 -1 66 -260643602 -186896969 -1996747521 -571724025
            -655356674 -119009804 -67596293 426602303</internalNodes>
          <leafValues>
            -2.1649359166622162e-01 1.8189083039760590e-01</leafValues></_>
        <_>
          <internalNodes>
            0 -1 124 201265087 -50987073 -1611284801 -185466945
            234667007 1150861309 1323039743 -554446085</internalNodes>
          <leafValues>
            -2.5189265608787537e-01 1.5555015206336975e-01</leafValues></_>
        <_>
          <internalNodes>
            0 -1 160 -570425345 -587202561 -268570755 -1941639672
            1560145405 -318767105 -320025012 -993727484</internalNodes>
          <leafValues>
            -1.5674534440040588e-01 2.6363140344619751e-01</leafValues></_>
        <_>
          <internalNodes>
            0 -1 137 -587249570 -553776609 -629499233 318900767
            -553760744 -304035 -12919782 -1157431745</internalNodes>
          <leafValues>
            -2.6840332150459290e-01 1.5136636793613434e-01</leafValues></_>
        <_>
          <internalNodes>
            0 -1 29 -1052950 -255398166 -487104352 -238356288 1207428736
            4219392 -227105600 -749472042</internalNodes>
          <leafValues>
            -2.2191411256790161e-01 1.7944180965423584e-01</leafValues></_>
        <_>
          <internalNodes>
            0 -1 215 503558050 1035175715 -1913388749 -1075466445
            1071920561 1066629043 804732927 930559607</internalNodes>
          <leafValues>
            -3.1036987900733948e-01 1.2899878621101379e-01</leafValues></_>
        <_>
          <internalNodes>
            0 -1 254 -134221174 -201329733 -254299598 -235734294
            -209747320 1140923392 -253234998 -246677558</internalNodes>
          <leafValues>
            -1.5700390934944153e-01 2.4331647157669067e-01</leafValues></_>
        <_>
          <internalNodes>
            0 -1 244 -1385826511 -2010460512 -577768975 -275779360
            -1910133583 -1945174868 1427461585 -842016308</internalNodes>
          <leafValues>
            -3.0572506785392761e-01 1.2632928788661957e-01</leafValues></_>
        <_>
          <internalNodes>
            0 -1 86 -1114370 -1372796690 -65537 -1343431425 -106972161
            -1073956017 -33820737 -1375865097</internalNodes>
          <leafValues>
            -2.7753004431724548e-01 1.3160502910614014e-01</leafValues></_>
        <_>
          <internalNodes>
            0 -1 2 -206831709 -1014047070 -201329712 -35407888 731231136
            -1937582204 1395913968 -716704559</internalNodes>
          <leafValues>
            -1.8466436862945557e-01 2.0458631217479706e-01</leafValues></_>
        <_>
          <internalNodes>
            0 -1 82 -658339618 414968575 -1430065153 -67123201
            -587281157 -4289553 -279297 1073679039</internalNodes>
          <leafValues>
            -2.6142200827598572e-01 1.3685898482799530e-01</leafValues></_>
        <_>
          <internalNodes>
            0 -1 273 -16784850 1107741418 -387259904 12778146 -748689850
            1078346052 -193466176 -733489418</internalNodes>
          <leafValues>
            -2.6747092604637146e-01 1.3373178243637085e-01</leafValues></_>
        <_>
          <internalNodes>
            0 -1 154 -15139331 -581640748 -81923 -4329473 -11207171
            -33556812 -345641045 -521673181</internalNodes>
          <leafValues>
            -1.2889277935028076e-01 2.7563363313674927e-01</leafValues></_>
        <_>
          <internalNodes>
            0 -1 96 -49349 -138437357 -171968129 -713081829 -50594369
            -4342593 977223227 1061109055</internalNodes>
          <leafValues>
            -3.4366065263748169e-01 1.0520768910646439e-01</leafValues></_>
        <_>
          <internalNodes>
            0 -1 73 -1431376990 -209526112 -177753456 -783880000
            -1886476856 -2143237632 660796648 -683416382</internalNodes>
          <leafValues>
            -1.8324752151966095e-01 1.8491299450397491e-01</leafValues></_>
        <_>
          <internalNodes>
            0 -1 249 1057919744 487341090 2147450132 -1111720145
            934160279 -1111871490 938374912 -1091600466</internalNodes>
          <leafValues>
            -2.6890692114830017e-01 1.2397646158933640e-01</leafValues></_>
        <_>
          <internalNodes>
            0 -1 67 1286128894 1482223100 -302084099 -34054186 -50348545
            -213579 -16842753 167343987</internalNodes>
          <leafValues>
            -2.3104389011859894e-01 1.4548991620540619e-01</leafValues></_>
        <_>
          <internalNodes>
            0 -1 181 -834666497 137412406 134360578 201387808 1584682741
            779124053 1162104388 -935272956</internalNodes>
          <leafValues>
            -1.6837334632873535e-01 1.9855929911136627e-01</leafValues></_>
        <_>
          <internalNodes>
            0 -1 140 586121761 49217536 40007411 1542951445 725030660
            88276996 -1236216208 -212339793</internalNodes>
          <leafValues>
            -1.6392552852630615e-01 1.9619368016719818e-01</leafValues></_>
        <_>
          <internalNodes>
            0 -1 200 453050357 -1816617484 132956157 -1073875459
            213434297 -335609859 691060729 -1883570136</internalNodes>
          <leafValues>
            -2.3122924566268921e-01 1.4324638247489929e-01</leafValues></_>
        <_>
          <internalNodes>
            0 -1 35 847228638 -138952833 853528159 2079840991
            -1363235089 -1157649153 -1112552214 553634014</internalNodes>
          <leafValues>
            -2.3418408632278442e-01 1.3967175781726837e-01</leafValues></_>
        <_>
          <internalNodes>
            0 -1 149 201505695 -1937234297 215936479 -842240437
            332877791 -285598209 -17506657 -86876585</internalNodes>
          <leafValues>
            -1.7531619966030121e-01 1.8807111680507660e-01</leafValues></_>
        <_>
          <internalNodes>
            0 -1 272 -151009777 -604245233 -352423170 1349975750
            -184619772 1984395522 -523567926 -265034038</internalNodes>
          <leafValues>
            -1.6510725021362305e-01 1.9866408407688141e-01</leafValues></_>
        <_>
          <internalNodes>
            0 -1 234 -927932288 431007409 -1342917584 -1610745871
            693407108 -1112510475 -18039413 -1074782145</internalNodes>
          <leafValues>
            -1.6636833548545837e-01 2.0149652659893036e-01</leafValues></_>
        <_>
          <internalNodes>
            0 -1 130 1278182575 270677905 -1426190465 -1112670296
            2130554077 -1090781513 -25772114 -1359216641</internalNodes>
          <leafValues>
            -1.7343707382678986e-01 1.8182952702045441e-01</leafValues></_>
        <_>
          <internalNodes>
            0 -1 20 -1051998 -771561950 1350168610 -136125726 -749763840
            1342464000 1883502154 -247204013</internalNodes>
          <leafValues>
            -1.9380851089954376e-01 1.6590254008769989e-01</leafValues></_>
        <_>
          <internalNodes>
            0 -1 185 -1456791553 529661875 255921947 218165008
            1582632223 -537002113 1294290496 290308</internalNodes>
          <leafValues>
            -2.8689515590667725e-01 1.1095913499593735e-01</leafValues></_>
        <_>
          <internalNodes>
            0 -1 178 -567292542 1404022464 -1030864270 -750534144
            118465672 13062274 1830187212 -536874041</internalNodes>
          <leafValues>
            -1.4157129824161530e-01 2.1751861274242401e-01</leafValues></_>
        <_>
          <internalNodes>
            0 -1 92 -924922289 -664911349 -20128033 268631775 -866218162
            -133411828 -337727794 -213651889</internalNodes>
          <leafValues>
            -2.3114790022373199e-01 1.3703815639019012e-01</leafValues></_></weakClassifiers></_></stages>
  <features>
    <_>
      <rect>
        0 0 1 1</rect></_>
    <_>
      <rect>
        0 0 6 6</rect></_>
    <_>
      <rect>
        0 1 1 1</rect></_>
    <_>
      <rect>
        0 1 6 6</rect></_>
    <_>
      <rect>
        0 3 1 1</rect></_>
    <_>
      <rect>
        0 6 1 1</rect></_>
    <_>
      <rect>
        0 6 3 6</rect></_>
    <_>
      <rect>
        0 9 5 4</rect></_>
    <_>
      <rect>
        0 11 8 4</rect></_>
    <_>
      <rect>
        0 19 8 1</rect></_>
    <_>
      <rect>
        1 0 1 1</rect></_>
    <_>
      <rect>
        1 0 4 4</rect></_>
    <_>
      <rect>
        1 0 7 6</rect></_>
    <_>
      <rect>
        1 1 7 6</rect></_>
    <_>
      <rect>
        1 3 1 1</rect></_>
    <_>
      <rect>
        1 4 1 1</rect></_>
    <_>
      <rect>
        1 4 6 3</rect></_>
    <_>
      <rect>
        1 6 1 1</rect></_>
    <_>
      <rect>
        1 7 1 1</rect></_>
    <_>
      <rect>
        1 7 6 2</rect></_>
    <_>
      <rect>
        1 8 1 1</rect></_>
    <_>
      <rect>
        1 11 1 1</rect></_>
    <_>
      <rect>
        2 0 4 4</rect></_>
    <_>
      <rect>
        2 0 6 6</rect></_>
    <_>
      <rect>
        2 0 7 6</rect></_>
    <_>
      <rect>
        2 2 1 1</rect></_>
    <_>
      <rect>
        2 3 1 1</rect></_>
    <_>
      <rect>
        2 3 7 5</rect></_>
    <_>
      <rect>
        2 4 1 1</rect></_>
    <_>
      <rect>
        2 5 1 1</rect></_>
    <_>
      <rect>
        2 6 1 1</rect></_>
    <_>
      <rect>
        2 7 1 1</rect></_>
    <_>
      <rect>
        2 7 5 5</rect></_>
    <_>
      <rect>
        2 10 4 4</rect></_>
    <_>
      <rect>
        2 12 3 2</rect></_>
    <_>
      <rect>
        3 0 4 4</rect></_>
    <_>
      <rect>
        3 0 5 6</rect></_>
    <_>
      <rect>
        3 0 6 4</rect></_>
    <_>
      <rect>
        3 2 5 5</rect></_>
    <_>
      <rect>
        3 3 1 1</rect></_>
    <_>
      <rect>
        3 4 6 6</rect></_>
    <_>
      <rect>
        3 5 2 2</rect></_>
    <_>
      <rect>
        3 5 6 3</rect></_>
    <_>
      <rect>
        3 5 6 5</rect></_>
    <_>
      <rect>
        3 6 2 2</rect></_>
    <_>
      <rect>
        3 6 6 3</rect></_>
    <_>
      <rect>
        3 7 2 2</rect></_>
    <_>
      <rect>
        3 7 6 3</rect></_>
    <_>
      <rect>
        3 8 2 2</rect></_>
    <_>
      <rect>
        3 8 2 3</rect></_>
    <_>
      <rect>
        3 8 6 2</rect></_>
    <_>
      <rect>
        3 8 7 4</rect></_>
    <_>
      <rect>
        3 9 2 2</rect></_>
    <_>
      <rect>
        3 10 4 4</rect></_>
    <_>
      <rect>
        3 11 6 4</rect></_>
    <_>
      <rect>
        3 15 6 1</rect></_>
    <_>
      <rect>
        3 16 4 2</rect></_>
    <_>
      <rect>
        4 0 1 1</rect></_>
    <_>
      <rect>
        4 0 5 5</rect></_>
    <_>
      <rect>
        4 1 4 4</rect></_>
    <_>
      <rect>
        4 2 1 1</rect></_>
    <_>
      <rect>
        4 3 1 1</rect></_>
    <_>
      <rect>
        4 3 5 4</rect></_>
    <_>
      <rect>
        4 4 1 1</rect></_>
    <_>
      <rect>
        4 4 2 3</rect></_>
    <_>
      <rect>
        4 4 5 3</rect></_>
    <_>
      <rect>
        4 5 2 2</rect></_>
    <_>
      <rect>
        4 7 2 2</rect></_>
    <_>
      <rect>
        4 8 2 2</rect></_>
    <_>
      <rect>
        4 9 1 2</rect></_>
    <_>
      <rect>
        4 10 3 4</rect></_>
    <_>
      <rect>
        4 11 1 1</rect></_>
    <_>
      <rect>
        4 12 1 1</rect></_>
    <_>
      <rect>
        5 0 1 1</rect></_>
    <_>
      <rect>
        5 1 6 4</rect></_>
    <_>
      <rect>
        5 1 6 5</rect></_>
    <_>
      <rect>
        5 2 6 4</rect></_>
    <_>
      <rect>
        5 3 1 5</rect></_>
    <_>
      <rect>
        5 3 2 3</rect></_>
    <_>
      <rect>
        5 4 1 4</rect></_>
    <_>
      <rect>
        5 5 1 4</rect></_>
    <_>
      <rect>
        5 6 2 2</rect></_>
    <_>
      <rect>
        5 8 1 3</rect></_>
    <_>
      <rect>
        5 9 1 3</rect></_>
    <_>
      <rect>
        5 10 1 2</rect></_>
    <_>
      <rect>
        5 10 2 3</rect></_>
    <_>
      <rect>
        5 10 3 2</rect></_>
    <_>
      <rect>
        5 11 1 2</rect></_>
    <_>
      <rect>
        5 12 1 2</rect></_>
    <_>
      <rect>
        5 12 2 2</rect></_>
    <_>
      <rect>
        5 13 1 1</rect></_>
    <_>
      <rect>
        5 13 2 2</rect></_>
    <_>
      <rect>
        5 14 1 1</rect></_>
    <_>
      <rect>
        5 15 5 1</rect></_>
    <_>
      <rect>
        6 0 5 5</rect></_>
    <_>
      <rect>
        6 0 6 4</rect></_>
    <_>
      <rect>
        6 0 6 6</rect></_>
    <_>
      <rect>
        6 1 1 7</rect></_>
    <_>
      <rect>
        6 1 5 5</rect></_>
    <_>
      <rect>
        6 2 4 4</rect></_>
    <_>
      <rect>
        6 2 5 5</rect></_>
    <_>
      <rect>
        6 3 1 5</rect></_>
    <_>
      <rect>
        6 4 1 4</rect></_>
    <_>
      <rect>
        6 4 4 3</rect></_>
    <_>
      <rect>
        6 5 6 4</rect></_>
    <_>
      <rect>
        6 7 1 1</rect></_>
    <_>
      <rect>
        6 7 1 2</rect></_>
    <_>
      <rect>
        6 9 1 1</rect></_>
    <_>
      <rect>
        6 10 1 1</rect></_>
    <_>
      <rect>
        6 10 1 3</rect></_>
    <_>
      <rect>
        6 10 4 2</rect></_>
    <_>
      <rect>
        6 11 1 1</rect></_>
    <_>
      <rect>
        6 11 1 2</rect></_>
    <_>
      <rect>
        6 11 4 4</rect></_>
    <_>
      <rect>
        6 12 1 1</rect></_>
    <_>
      <rect>
        6 13 1 2</rect></_>
    <_>
      <rect>
        6 13 2 2</rect></_>
    <_>
      <rect>
        6 14 1 1</rect></_>
    <_>
      <rect>
        6 14 2 1</rect></_>
    <_>
      <rect>
        6 15 1 1</rect></_>
    <_>
      <rect>
        6 15 4 1</rect></_>
    <_>
      <rect>
        6 16 3 1</rect></_>
    <_>
      <rect>
        6 16 4 1</rect></_>
    <_>
      <rect>
        6 18 1 1</rect></_>
    <_>
      <rect>
        7 0 4 6</rect></_>
    <_>
      <rect>
        7 1 3 7</rect></_>
    <_>
      <rect>
        7 3 3 4</rect></_>
    <_>
      <rect>
        7 5 2 5</rect></_>
    <_>
      <rect>
        7 7 1 1</rect></_>
    <_>
      <rect>
        7 7 5 5</rect></_>
    <_>
      <rect>
        7 9 1 1</rect></_>
    <_>
      <rect>
        7 10 1 1</rect></_>
    <_>
      <rect>
        7 10 1 2</rect></_>
    <_>
      <rect>
        7 11 1 3</rect></_>
    <_>
      <rect>
        7 13 1 1</rect></_>
    <_>
      <rect>
        7 15 1 1</rect></_>
    <_>
      <rect>
        7 15 2 1</rect></_>
    <_>
      <rect>
        7 16 1 1</rect></_>
    <_>
      <rect>
        7 16 2 1</rect></_>
    <_>
      <rect>
        7 16 3 1</rect></_>
    <_>
      <rect>
        7 18 1 1</rect></_>
    <_>
      <rect>
        8 0 2 3</rect></_>
    <_>
      <rect>
        8 0 4 6</rect></_>
    <_>
      <rect>
        8 4 3 5</rect></_>
    <_>
      <rect>
        8 5 2 5</rect></_>
    <_>
      <rect>
        8 10 1 2</rect></_>
    <_>
      <rect>
        8 11 1 2</rect></_>
    <_>
      <rect>
        8 11 3 2</rect></_>
    <_>
      <rect>
        8 13 2 2</rect></_>
    <_>
      <rect>
        8 14 1 1</rect></_>
    <_>
      <rect>
        8 15 1 1</rect></_>
    <_>
      <rect>
        8 16 1 1</rect></_>
    <_>
      <rect>
        8 16 2 1</rect></_>
    <_>
      <rect>
        8 16 3 1</rect></_>
    <_>
      <rect>
        8 16 3 2</rect></_>
    <_>
      <rect>
        8 19 3 1</rect></_>
    <_>
      <rect>
        9 1 4 6</rect></_>
    <_>
      <rect>
        9 5 1 5</rect></_>
    <_>
      <rect>
        9 8 5 4</rect></_>
    <_>
      <rect>
        9 9 5 4</rect></_>
    <_>
      <rect>
        9 11 1 1</rect></_>
    <_>
      <rect>
        9 15 1 1</rect></_>
    <_>
      <rect>
        9 16 1 1</rect></_>
    <_>
      <rect>
        9 16 2 1</rect></_>
    <_>
      <rect>
        9 16 3 1</rect></_>
    <_>
      <rect>
        9 17 1 1</rect></_>
    <_>
      <rect>
        9 17 2 1</rect></_>
    <_>
      <rect>
        10 2 4 3</rect></_>
    <_>
      <rect>
        10 4 3 2</rect></_>
    <_>
      <rect>
        10 5 2 5</rect></_>
    <_>
      <rect>
        10 6 1 1</rect></_>
    <_>
      <rect>
        10 10 1 1</rect></_>
    <_>
      <rect>
        10 10 4 4</rect></_>
    <_>
      <rect>
        10 11 4 3</rect></_>
    <_>
      <rect>
        10 16 1 1</rect></_>
    <_>
      <rect>
        10 16 2 1</rect></_>
    <_>
      <rect>
        10 17 1 1</rect></_>
    <_>
      <rect>
        11 4 3 2</rect></_>
    <_>
      <rect>
        11 5 1 1</rect></_>
    <_>
      <rect>
        11 5 2 5</rect></_>
    <_>
      <rect>
        11 6 1 1</rect></_>
    <_>
      <rect>
        11 9 1 1</rect></_>
    <_>
      <rect>
        11 9 3 4</rect></_>
    <_>
      <rect>
        11 10 1 1</rect></_>
    <_>
      <rect>
        11 11 3 3</rect></_>
    <_>
      <rect>
        11 12 1 1</rect></_>
    <_>
      <rect>
        11 12 3 3</rect></_>
    <_>
      <rect>
        11 15 2 1</rect></_>
    <_>
      <rect>
        11 16 1 1</rect></_>
    <_>
      <rect>
        11 16 2 1</rect></_>
    <_>
      <rect>
        11 17 1 1</rect></_>
    <_>
      <rect>
        12 3 3 3</rect></_>
    <_>
      <rect>
        12 7 2 1</rect></_>
    <_>
      <rect>
        12 10 1 2</rect></_>
    <_>
      <rect>
        12 11 1 1</rect></_>
    <_>
      <rect>
        12 12 1 1</rect></_>
    <_>
      <rect>
        12 13 1 1</rect></_>
    <_>
      <rect>
        12 15 2 1</rect></_>
    <_>
      <rect>
        12 16 1 1</rect></_>
    <_>
      <rect>
        12 16 2 1</rect></_>
    <_>
      <rect>
        12 17 1 1</rect></_>
    <_>
      <rect>
        13 5 2 2</rect></_>
    <_>
      <rect>
        13 5 3 2</rect></_>
    <_>
      <rect>
        13 7 1 1</rect></_>
    <_>
      <rect>
        13 8 1 1</rect></_>
    <_>
      <rect>
        13 10 1 2</rect></_>
    <_>
      <rect>
        13 10 2 3</rect></_>
    <_>
      <rect>
        13 12 1 1</rect></_>
    <_>
      <rect>
        13 12 3 2</rect></_>
    <_>
      <rect>
        13 13 1 1</rect></_>
    <_>
      <rect>
        13 14 1 1</rect></_>
    <_>
      <rect>
        13 15 1 1</rect></_>
    <_>
      <rect>
        13 16 1 1</rect></_>
    <_>
      <rect>
        14 4 2 3</rect></_>
    <_>
      <rect>
        14 5 2 3</rect></_>
    <_>
      <rect>
        14 6 1 2</rect></_>
    <_>
      <rect>
        14 8 1 1</rect></_>
    <_>
      <rect>
        14 8 2 2</rect></_>
    <_>
      <rect>
        14 9 1 1</rect></_>
    <_>
      <rect>
        14 9 2 3</rect></_>
    <_>
      <rect>
        14 11 1 1</rect></_>
    <_>
      <rect>
        14 11 1 3</rect></_>
    <_>
      <rect>
        14 12 1 1</rect></_>
    <_>
      <rect>
        14 13 1 1</rect></_>
    <_>
      <rect>
        14 15 1 1</rect></_>
    <_>
      <rect>
        14 16 1 1</rect></_>
    <_>
      <rect>
        14 18 1 1</rect></_>
    <_>
      <rect>
        15 1 1 6</rect></_>
    <_>
      <rect>
        15 2 1 6</rect></_>
    <_>
      <rect>
        15 3 2 5</rect></_>
    <_>
      <rect>
        15 4 1 4</rect></_>
    <_>
      <rect>
        15 6 1 2</rect></_>
    <_>
      <rect>
        15 6 1 3</rect></_>
    <_>
      <rect>
        15 6 2 3</rect></_>
    <_>
      <rect>
        15 7 1 1</rect></_>
    <_>
      <rect>
        15 7 2 1</rect></_>
    <_>
      <rect>
        15 7 2 2</rect></_>
    <_>
      <rect>
        15 8 2 3</rect></_>
    <_>
      <rect>
        15 10 1 1</rect></_>
    <_>
      <rect>
        15 10 1 3</rect></_>
    <_>
      <rect>
        15 11 1 1</rect></_>
    <_>
      <rect>
        15 11 2 2</rect></_>
    <_>
      <rect>
        15 13 1 2</rect></_>
    <_>
      <rect>
        15 14 1 1</rect></_>
    <_>
      <rect>
        15 15 1 1</rect></_>
    <_>
      <rect>
        16 1 1 1</rect></_>
    <_>
      <rect>
        16 3 1 1</rect></_>
    <_>
      <rect>
        16 8 1 2</rect></_>
    <_>
      <rect>
        16 10 1 2</rect></_>
    <_>
      <rect>
        16 11 1 1</rect></_>
    <_>
      <rect>
        16 11 1 2</rect></_>
    <_>
      <rect>
        16 12 1 2</rect></_>
    <_>
      <rect>
        16 13 1 1</rect></_>
    <_>
      <rect>
        17 2 1 1</rect></_>
    <_>
      <rect>
        17 3 1 1</rect></_>
    <_>
      <rect>
        17 4 1 1</rect></_>
    <_>
      <rect>
        17 11 1 1</rect></_>
    <_>
      <rect>
        17 12 1 1</rect></_>
    <_>
      <rect>
        19 0 1 1</rect></_>
    <_>
      <rect>
        19 1 1 1</rect></_>
    <_>
      <rect>
        19 2 1 1</rect></_>
    <_>
      <rect>
        19 3 1 1</rect></_>
    <_>
      <rect>
        19 4 1 1</rect></_>
    <_>
      <rect>
        19 5 1 1</rect></_>
    <_>
      <rect>
        19 6 1 1</rect></_>
    <_>
      <rect>
        20 3 1 1</rect></_>
    <_>
      <rect>
        20 5 1 1</rect></_>
    <_>
      <rect>
        20 6 1 1</rect></_>
    <_>
      <rect>
        20 7 1 1</rect></_>
    <_>
      <rect>
        20 8 1 1</rect></_>
    <_>
      <rect>
        20 9 1 1</rect></_>
    <_>
      <rect>
        21 0 1 1</rect></_>
    <_>
      <rect>
        21 2 1 1</rect></_>
    <_>
      <rect>
        21 6 1 1</rect></_></features></cascade>
</opencv_storage>
